{
  "version": "1.1.0",
  "trained_at": "2026-04-15T09:40:12.598839",
  "knowledge_graph": {
    "nodes": [
      {
        "id": "arithmetic",
        "domain": "math",
        "level": 1
      },
      {
        "id": "algebra",
        "domain": "math",
        "level": 2
      },
      {
        "id": "calculus",
        "domain": "math",
        "level": 3
      },
      {
        "id": "statistics",
        "domain": "math",
        "level": 3
      },
      {
        "id": "reading_comp",
        "domain": "language",
        "level": 1
      },
      {
        "id": "writing",
        "domain": "language",
        "level": 2
      },
      {
        "id": "critical_analysis",
        "domain": "language",
        "level": 3
      },
      {
        "id": "basic_science",
        "domain": "science",
        "level": 1
      },
      {
        "id": "physics",
        "domain": "science",
        "level": 2
      },
      {
        "id": "chemistry",
        "domain": "science",
        "level": 2
      },
      {
        "id": "biology",
        "domain": "science",
        "level": 2
      },
      {
        "id": "programming",
        "domain": "cs",
        "level": 2
      },
      {
        "id": "algorithms",
        "domain": "cs",
        "level": 3
      },
      {
        "id": "machine_learning",
        "domain": "cs",
        "level": 4
      },
      {
        "id": "communication",
        "domain": "soft",
        "level": 1
      },
      {
        "id": "teamwork",
        "domain": "soft",
        "level": 2
      }
    ],
    "edges": [
      {
        "from": "arithmetic",
        "to": "algebra",
        "weight": 0.92,
        "type": "prerequisite"
      },
      {
        "from": "algebra",
        "to": "calculus",
        "weight": 0.87,
        "type": "prerequisite"
      },
      {
        "from": "algebra",
        "to": "statistics",
        "weight": 0.72,
        "type": "prerequisite"
      },
      {
        "from": "algebra",
        "to": "physics",
        "weight": 0.68,
        "type": "transfer"
      },
      {
        "from": "algebra",
        "to": "programming",
        "weight": 0.65,
        "type": "transfer"
      },
      {
        "from": "calculus",
        "to": "physics",
        "weight": 0.78,
        "type": "transfer"
      },
      {
        "from": "calculus",
        "to": "machine_learning",
        "weight": 0.62,
        "type": "transfer"
      },
      {
        "from": "statistics",
        "to": "machine_learning",
        "weight": 0.74,
        "type": "transfer"
      },
      {
        "from": "reading_comp",
        "to": "writing",
        "weight": 0.85,
        "type": "prerequisite"
      },
      {
        "from": "writing",
        "to": "critical_analysis",
        "weight": 0.76,
        "type": "prerequisite"
      },
      {
        "from": "writing",
        "to": "communication",
        "weight": 0.45,
        "type": "transfer"
      },
      {
        "from": "critical_analysis",
        "to": "algorithms",
        "weight": 0.35,
        "type": "transfer"
      },
      {
        "from": "basic_science",
        "to": "physics",
        "weight": 0.81,
        "type": "prerequisite"
      },
      {
        "from": "basic_science",
        "to": "chemistry",
        "weight": 0.79,
        "type": "prerequisite"
      },
      {
        "from": "basic_science",
        "to": "biology",
        "weight": 0.83,
        "type": "prerequisite"
      },
      {
        "from": "programming",
        "to": "algorithms",
        "weight": 0.88,
        "type": "prerequisite"
      },
      {
        "from": "algorithms",
        "to": "machine_learning",
        "weight": 0.71,
        "type": "prerequisite"
      },
      {
        "from": "communication",
        "to": "teamwork",
        "weight": 0.58,
        "type": "prerequisite"
      }
    ]
  },
  "hns_kgt_attention": {
    "W1": [
      [
        0.043538506644645446,
        -0.05003618615969177,
        0.06570846681377157,
        -0.06050077928184548,
        0.0711027829980971,
        0.12622968994462247,
        0.022648128180121293,
        0.10217437110390888,
        0.015703242074805248,
        -0.03814479730194441,
        0.006944254210702335,
        0.01129980578175211,
        0.04383029213569253,
        0.10404513625851151,
        0.018540709544613777,
        0.013377522304576006,
        -0.011339495294035622,
        0.03816876522453841,
        -0.030135802636120455,
        0.033792067178692015,
        -0.05216907676131414,
        -0.0751951438310602,
        0.04548187248046083,
        0.030535516035633235,
        0.03859173915911149,
        -0.023255416408624677,
        -0.057479355624532866,
        -0.008286777530439429,
        -0.0028428095856813385,
        -0.06187727291937991,
        0.0045809378163302805,
        0.012641103011611502,
        -0.09907725232006233,
        0.023203456313611426,
        -0.021053411629950582,
        -0.08431914216488702,
        -0.07205905384377895,
        0.05773378071676724,
        -0.009245364059151098,
        -0.04132482267403488,
        -0.08904291381238494,
        0.05165478845564024,
        -0.07220763364027186,
        -0.04757491162299775,
        0.09335816044070172,
        -0.013650614907726745,
        0.0016921181869520541,
        0.057652405044479785
      ],
      [
        0.08499112132572013,
        -0.005525894618310418,
        0.01023135026661949,
        -0.06733083688055466,
        -0.027691907801941334,
        -0.07486033042509145,
        0.015863310376303726,
        -0.05170457717272438,
        -0.04314410113795702,
        0.004110001757335671,
        0.009148446472567242,
        0.060861969282203554,
        0.09426722651999243,
        0.02108567084125299,
        -0.015738516342530953,
        0.0636345300353877,
        -0.014200422069622794,
        0.0011789137356263376,
        0.024984428846553924,
        -0.08308280588446026,
        -0.08423448158125953,
        -0.04686404127679264,
        0.009935640370299486,
        0.05152978997775548,
        -0.036223429107572286,
        -0.08393087526536167,
        -0.039528941390426044,
        -0.01836437682638964,
        0.05752640309757377,
        -0.03984381000528452,
        -0.04720483485203258,
        -0.0076216048526761455,
        -0.03429155647641929,
        0.02809681321473024,
        -0.016556375809197423,
        0.0022971748453858827,
        -0.02090144026393965,
        0.0012468490122247303,
        0.04909452055701987,
        0.005276411366728283,
        0.0102242447071975,
        -0.10554222537673517,
        0.043955857575119085,
        0.034737645198673686,
        -0.10420694167686491,
        -0.03872845122966767,
        -0.08009397834461325,
        0.029550031628270412
      ],
      [
        0.025765669886814908,
        -0.05345542576504797,
        0.012116714109868384,
        0.04705817980967942,
        -0.02727578159804001,
        -0.033884349727311684,
        -0.035436292829351825,
        -0.042494333017991666,
        0.0411787372284445,
        0.04993056378908876,
        -0.054984659366477916,
        0.006005706628521919,
        -0.018243889038732256,
        0.0008794669128450401,
        0.006711334714032058,
        0.06084473366316314,
        0.016132298583050278,
        0.03942558913406013,
        0.015579592576824005,
        0.06355050921064431,
        -0.06624415694861618,
        -0.06908917519158939,
        0.048261725967968995,
        0.03289530594884965,
        0.0397437151519593,
        0.0359870268769488,
        -0.018604087680558955,
        0.010196351155340096,
        0.06107137004167285,
        0.0905751805213352,
        -0.06482442549971217,
        -0.036233888710572065,
        -0.04166852630636419,
        -0.0018175577262769301,
        -0.00016693623109478677,
        -0.045273984377251934,
        0.013717836088400916,
        0.09087028926085976,
        -0.04120764270545317,
        0.002494780370860056,
        -0.043297421443227936,
        0.029781834019415223,
        0.0677756693846154,
        -0.01463990836696138,
        0.0032708504839784633,
        0.011330144376260128,
        0.10530473013864369,
        0.027577131822811275
      ],
      [
        0.06195459881646353,
        0.018594052138118478,
        0.08123295628504032,
        -0.007391398033928102,
        0.0684464923142867,
        -0.019088889360891256,
        -0.03937369292192652,
        -0.005046169203081829,
        -0.0006377705741543971,
        0.005227270360220484,
        0.003480778974675249,
        -0.0008069468285545466,
        0.0220602262857337,
        0.02200884940094722,
        -0.033995561995001214,
        -0.0692628324073847,
        0.07137391338463157,
        -0.014043620228012569,
        0.018236871718614465,
        -0.013170614291054473,
        -0.0037821430491492792,
        0.021906905910805546,
        0.06653083644591702,
        0.03862969789825939,
        0.014949643933976391,
        0.03745348913009958,
        -0.054148707131027915,
        0.029069408024982243,
        -0.022007417718328075,
        -0.0020604967757101795,
        0.018545217480466076,
        -0.0294077242801896,
        -0.03886921332465357,
        0.11616620175784884,
        0.012615900574174556,
        -0.013616827329435137,
        0.04524744662011149,
        -0.031422416113887436,
        -0.011949474652787463,
        0.050544865024211766,
        -0.10795233534244669,
        -0.03159733366470581,
        -0.06730704838643348,
        0.09631834473842098,
        0.052655593242571005,
        0.0019412239811700846,
        0.011375037967037871,
        -0.058919767880843965
      ],
      [
        -0.04422614310855769,
        -0.022520525557141676,
        0.06674091990975724,
        -0.04230810102859499,
        -0.0732619996014425,
        -0.01358013242647731,
        -0.02854100421197859,
        0.040395930400638734,
        0.011770128065693827,
        0.014389692183225215,
        0.02666870760083562,
        0.06710662435114678,
        -0.012494131702873805,
        -0.06374858320009141,
        -0.031089839862643593,
        0.03577053193057521,
        0.09387103978259691,
        0.02487096675264831,
        0.022336131493628363,
        0.0033846763231168615,
        0.06686514152636357,
        0.003550028908600032,
        -0.07112193618620066,
        -0.05310696185753578,
        -0.034122654753217185,
        -0.09077816434896097,
        0.09013207761068134,
        0.006247993389532256,
        0.004728866081434744,
        0.0066392056474039365,
        0.005935351999202954,
        0.0341549125854253,
        0.0028124364782168235,
        0.0872051319143544,
        0.05192255010819991,
        -0.02957827635815321,
        -0.03842043511099155,
        -0.04612003414827214,
        -0.011765382821099972,
        0.0015306025079722789,
        -0.02880319935739849,
        0.04925778348156654,
        -0.03639970275409205,
        0.015656177424741305,
        0.013568113190020374,
        0.015840141220280962,
        -0.043957086120183196,
        0.17047111519055005
      ]
    ],
    "b1": [
      0.010028079058547933,
      0.002788363659701099,
      0.002345565761892039,
      -0.0050830751645587775,
      -0.010911257322253065,
      -0.007008854663106063,
      0.008645475753361463,
      0.003741942445883166,
      -0.0030597377762022994,
      -0.01627260481797927,
      -0.008568885365597745,
      0.020918510540835423,
      0.012098499712379382,
      0.0022096182373383326,
      -0.008011585018578567,
      0.009207771284954749,
      -0.00039773757827187765,
      0.0016072837106980396,
      -0.0031471914036634366,
      -0.004143431575985751,
      0.01731237721191585,
      -0.004281868002929107,
      0.0015709121932966938,
      -0.0016635069683348291,
      0.009434026135874001,
      -0.008090089318416798,
      -0.0029196037467580857,
      -0.005779214206339617,
      0.006130730365988043,
      -0.010435125285607088,
      -0.0035521757217667374,
      -0.000915762416327018,
      0.0036618847125855954,
      0.004657637407474459,
      0.0038582316232215266,
      0.014329787901170257,
      -0.01449822896277491,
      0.01095988902338476,
      0.0010012426761803691,
      -0.00825466890914715,
      -0.008337833524308851,
      0.01351983218309921,
      -0.00429323810785333,
      -0.009812986495181013,
      0.006427436778483644,
      0.0032984985223297267,
      -0.01672099063376176,
      -0.0032212068710098176
    ],
    "W2": [
      [
        0.06828632894875868,
        -0.08220656363719435,
        0.04112827113476537
      ],
      [
        -0.011332665518871313,
        -0.020290700357677903,
        0.00441509381135055
      ],
      [
        -0.03201800751492684,
        -0.003135211133902377,
        0.0022813423630578572
      ],
      [
        -0.012530139591501274,
        0.05595620315407485,
        -0.0033610689976664517
      ],
      [
        0.07637378816698696,
        0.015217310359440347,
        -0.03716609759370817
      ],
      [
        0.014934923585495453,
        0.01248175193638977,
        -0.0338664803866527
      ],
      [
        0.014130464761379103,
        -0.07687137272674532,
        0.014304000544184717
      ],
      [
        -0.06242225521310246,
        -0.12028278920082512,
        -0.07433473392578091
      ],
      [
        0.022321440157565913,
        0.07128740410478702,
        0.03213736380892203
      ],
      [
        0.06464511513614972,
        0.005080667068615295,
        -0.0879697540884123
      ],
      [
        0.04468209645281546,
        0.027212065264493553,
        -0.027423014466023077
      ],
      [
        -0.14591860364926532,
        -0.02702196339501419,
        0.07579284417849125
      ],
      [
        0.01505051859422896,
        -0.03829371727329986,
        0.06508520709455659
      ],
      [
        -0.003725070335709864,
        0.009281976350237567,
        0.01948431398666385
      ],
      [
        -0.07158882957135114,
        0.06522350416589284,
        -0.04002690693943562
      ],
      [
        0.0044320221098769,
        -0.07196043880022382,
        0.01811679669702601
      ]
    ],
    "b2": [
      -0.053952850742990416,
      -0.09512056880345172,
      0.14907341954644207
    ]
  },
  "acd_bkt_params": {
    "p_init": 0.3,
    "p_learn": 0.1,
    "p_guess": 0.2,
    "p_slip": 0.1
  },
  "bacp_baselines": {
    "school_type": {
      "government": {
        "math": 45.2,
        "science": 42.8
      },
      "private": {
        "math": 55.3,
        "science": 53.1
      }
    }
  }
}